{
  "bfs": {
    "W": [
      [
        -0.060154858469887676,
        -0.04827144301171186,
        -0.05609311461899308,
        -0.0038543014359197457,
        -0.07337453374723336,
        -0.017762895924131345,
        -0.007250082637970015
      ],
      [
        0.007674347291529088,
        -0.004694743859349522,
        0.005425600435859647,
        -0.0046341769281246226,
        -0.004657297535702569,
        0.002419622715660341,
        -0.01913280244657798
      ],
      [
        -0.26164117832513034,
        -0.08749607529241013,
        0.179340688796656,
        0.9414996733259524,
        0.5472157592447876,
        -0.11960308135806573,
        0.18119817410550754
      ],
      [
        0.1321932369951341,
        0.8286808820468722,
        0.4410485181378655,
        0.024173972754750334,
        -0.27250677410289703,
        -1.5271141187525825,
        -1.6745198553029839
      ],
      [
        -0.00600638689918805,
        -0.002916937497932768,
        -0.006017066122293969,
        0.01852278184508938,
        -0.0001349722473793392,
        -0.010577109289559003,
        0.00822544912103189
      ],
      [
        -0.012208436499710222,
        0.0020886359500475542,
        -0.019596701238797757,
        -0.013281860488984306,
        0.0019686123586912354,
        0.007384665799954104,
        0.001713682811899705
      ],
      [
        -0.032842482823878305,
        0.20915556304410712,
        0.11169878009632483,
        -0.7160438420839507,
        -0.5903823877095963,
        0.19770756256973288,
        -0.3375429795092837
      ],
      [
        0.8885395984463552,
        0.8981558396939425,
        -0.9265748228041679,
        -0.5049138200030655,
        0.6836517628884092,
        0.7249089879513126,
        0.03461905507969282
      ],
      [
        -0.32231117523222674,
        0.0861322762414882,
        0.34641363431403577,
        0.4003196512712238,
        1.154704257621547,
        -0.12199991650710726,
        0.04743617030707785
      ],
      [
        -1.3346110662408182,
        -0.500536541776061,
        0.8036194002857178,
        0.1726376987841986,
        -0.21684267102108148,
        0.44509222604621146,
        0.9051162435600838
      ],
      [
        1.0312389560550757,
        0.7655045656646658,
        0.5886417396088858,
        0.9232834365581233,
        -1.7300234510409451,
        0.5964515491265869,
        1.6938312936772437
      ],
      [
        -1.094474073504661,
        -1.0741945922346512,
        -0.7949446891459999,
        0.5599518811216269,
        -0.6714058742848896,
        -0.5081090234424351,
        0.28036178775958137
      ],
      [
        0.6013730639710684,
        -0.41763157043584576,
        -0.36462697882297945,
        -0.32706828890340306,
        1.2811793979623298,
        -0.2757238093621493,
        -0.3774066638541685
      ],
      [
        0.9792344499053379,
        -0.7180253309387709,
        -0.14344462146597678,
        -0.735772681531316,
        0.4290198505186787,
        -0.983142223348925,
        -1.337771279396517
      ],
      [
        -0.5779488654335743,
        0.05937312866624921,
        -0.23324870742050377,
        -0.7176070532276454,
        -0.5907801451652621,
        1.6070304585161932,
        0.6190244086384902
      ]
    ],
    "b": [
      -0.1,
      0.0,
      0.1,
      0.30000000000000004,
      0.0,
      0.0,
      0.10000000000000003,
      -0.5,
      -0.2,
      0.30000000000000004,
      -1.7000000000000004,
      1.6000000000000003,
      -0.2,
      0.20000000000000004,
      0.10000000000000003
    ],
    "algorithms": [
      "SORT",
      "RANDOM",
      "HUBSORT",
      "HUBCLUSTER",
      "DBG",
      "HUBSORTDBG",
      "HUBCLUSTERDBG",
      "RABBITORDER",
      "GORDER",
      "CORDER",
      "RCM",
      "GraphBrewOrder",
      "LeidenOrder",
      "LeidenDendrogram",
      "LeidenCSR"
    ]
  },
  "pr": {
    "W": [
      [
        1.5886541415300928,
        -0.5834766430117146,
        -0.5724071146189922,
        0.18816369856408016,
        -1.2421235337472503,
        0.31052656516089777,
        0.6054807144815497
      ],
      [
        -0.9262376527084931,
        -0.19596294385933619,
        0.0056836004358516296,
        1.7098190230718893,
        -0.6387722975357037,
        0.05212580713624965,
        0.5807983838641582
      ],
      [
        -0.01724917832513033,
        -0.005622875292409727,
        -0.010128311203344238,
        0.003142473325952739,
        -0.00908024075521211,
        -0.014123037013352916,
        0.014656487689215542
      ],
      [
        -0.0022577630048653567,
        0.0006752820468792384,
        -0.014247481862134568,
        -0.005443827245251827,
        0.001109225897098661,
        -0.011509935774223028,
        0.0037569801834567195
      ],
      [
        -1.1038493868991868,
        -0.3519061374979341,
        -0.5883480661222922,
        -1.1131180181549203,
        0.9241470277526108,
        -0.43036396138757727,
        -0.7415063439580742
      ],
      [
        -0.012208436499710222,
        0.0020886359500475542,
        -0.019596701238797757,
        -0.013281860488984306,
        0.0019686123586912354,
        0.007384665799954104,
        0.001713682811899705
      ],
      [
        -0.0011564828238824054,
        -0.0030110369558928878,
        -0.014785219903674275,
        -0.0071984420839470865,
        -0.004606387709597875,
        0.010571222262189157,
        0.003436182895684614
      ],
      [
        0.35125459844637275,
        1.0282862396939478,
        -0.5846498228041631,
        -0.23843822000305961,
        0.13834876288840867,
        0.2469214575507679,
        -0.019738515126765607
      ],
      [
        -0.008392175232226386,
        -0.003092123758512146,
        0.0033126343140356396,
        0.009755451271223592,
        -0.0047917423784529,
        -0.0018565897666381712,
        -0.011063349740060282
      ],
      [
        -0.011962066240806708,
        0.008125258223941981,
        0.01356240028570823,
        -0.0007201012158033385,
        0.010035328978920241,
        0.0036163602504763414,
        -0.006451197546051243
      ],
      [
        0.0036139560550841393,
        0.015380365664659692,
        -0.0003582603910995154,
        0.01564643655814006,
        -0.026197451040897445,
        0.00821902504375224,
        0.0008704706823817123
      ],
      [
        -1.336930073504668,
        0.16633340776534555,
        1.2066003108539984,
        -0.332939118878375,
        1.1900481257151454,
        0.6617942591345302,
        0.8469443817535502
      ],
      [
        -0.008084936028931877,
        -0.005017570435845366,
        0.009154021177020742,
        0.0032875110965968446,
        -0.005297602037670388,
        0.005132674331133561,
        0.0009707754934804039
      ],
      [
        0.39346644990533053,
        0.49147706906122657,
        0.8113713785340234,
        0.3643749184686783,
        -0.08672014948132122,
        -0.5929370817068723,
        -0.5297583394388949
      ],
      [
        1.0293941345664213,
        -0.5689532713337522,
        -0.31352170742050317,
        -0.5658368532276544,
        -0.3004361451652684,
        -0.2385385362805755,
        -0.7322077121324393
      ]
    ],
    "b": [
      -0.7,
      0.5,
      0.0,
      0.0,
      1.3,
      0.0,
      0.0,
      -0.4,
      0.0,
      0.0,
      0.0,
      -0.4,
      0.0,
      -0.4,
      0.1
    ],
    "algorithms": [
      "SORT",
      "RANDOM",
      "HUBSORT",
      "HUBCLUSTER",
      "DBG",
      "HUBSORTDBG",
      "HUBCLUSTERDBG",
      "RABBITORDER",
      "GORDER",
      "CORDER",
      "RCM",
      "GraphBrewOrder",
      "LeidenOrder",
      "LeidenDendrogram",
      "LeidenCSR"
    ]
  },
  "cc": {
    "W": [
      [
        -0.12520885846988367,
        -1.545247043011666,
        1.1813008853810139,
        2.581444498564004,
        0.4909424662527677,
        -0.6008113501962792,
        1.4902030275464948
      ],
      [
        0.007674347291529088,
        -0.004694743859349522,
        0.005425600435859647,
        -0.0046341769281246226,
        -0.004657297535702569,
        0.002419622715660341,
        -0.01913280244657798
      ],
      [
        -0.01724917832513033,
        -0.005622875292409727,
        -0.010128311203344238,
        0.003142473325952739,
        -0.00908024075521211,
        -0.014123037013352916,
        0.014656487689215542
      ],
      [
        -0.11202776300486819,
        0.14013548204687853,
        -0.09178948186213477,
        -0.2784848272452534,
        -0.6062077741028954,
        -1.0351729784341517,
        -0.9634974666899805
      ],
      [
        -0.00600638689918805,
        -0.002916937497932768,
        -0.006017066122293969,
        0.01852278184508938,
        -0.0001349722473793392,
        -0.010577109289559003,
        0.00822544912103189
      ],
      [
        -0.012208436499710222,
        0.0020886359500475542,
        -0.019596701238797757,
        -0.013281860488984306,
        0.0019686123586912354,
        0.007384665799954104,
        0.001713682811899705
      ],
      [
        -0.16795848282388287,
        -0.298493036955889,
        -0.4577412199036696,
        -0.5635738420839369,
        -0.4964533877096007,
        1.6359321263353503,
        0.7414104908631894
      ],
      [
        -0.01763040155362734,
        0.00324083969394795,
        -0.0038508228041631656,
        -0.006769220003059588,
        0.006116762888408679,
        0.01030999522495951,
        0.009312801191161986
      ],
      [
        -0.32715317523222825,
        0.8984840762414795,
        0.33766163431403995,
        -1.7307125487288153,
        0.8043052576215385,
        -0.8810846335069746,
        -1.7035498119019348
      ],
      [
        -0.011962066240806708,
        0.008125258223941981,
        0.01356240028570823,
        -0.0007201012158033385,
        0.010035328978920241,
        0.0036163602504763414,
        -0.006451197546051243
      ],
      [
        -0.046076043944915865,
        -0.02067023433534031,
        -0.043640260391099514,
        0.013233436558140061,
        -0.026406451040897446,
        -0.014130472753589342,
        -0.0207528994696431
      ],
      [
        -0.002990073504658675,
        0.000917607765355023,
        -0.01987568914600893,
        -0.0021967188783751194,
        0.003571125715117464,
        0.014778940447415161,
        -0.005182702182736474
      ],
      [
        -0.008084936028931877,
        -0.005017570435845366,
        0.009154021177020742,
        0.0032875110965968446,
        -0.005297602037670388,
        0.005132674331133561,
        0.0009707754934804039
      ],
      [
        0.0477754499053244,
        -0.356478330938766,
        0.3458163785340267,
        0.9459037184686545,
        0.4342088505186766,
        0.26985827018348285,
        0.6941793097997347
      ],
      [
        0.7371611345664203,
        1.1814725286662813,
        -1.3086397074204932,
        -0.9479480532276601,
        -0.6552791451652671,
        0.6234298206462074,
        -0.22420254236620077
      ]
    ],
    "b": [
      -2.7755575615628914e-17,
      0.0,
      0.0,
      0.5,
      0.0,
      0.0,
      -0.1,
      0.0,
      0.30000000000000004,
      0.0,
      -0.1,
      0.0,
      0.0,
      -0.4,
      -0.20000000000000004
    ],
    "algorithms": [
      "SORT",
      "RANDOM",
      "HUBSORT",
      "HUBCLUSTER",
      "DBG",
      "HUBSORTDBG",
      "HUBCLUSTERDBG",
      "RABBITORDER",
      "GORDER",
      "CORDER",
      "RCM",
      "GraphBrewOrder",
      "LeidenOrder",
      "LeidenDendrogram",
      "LeidenCSR"
    ]
  },
  "sssp": {
    "W": [
      [
        -0.060154858469887676,
        -0.04827144301171186,
        -0.05609311461899308,
        -0.0038543014359197457,
        -0.07337453374723336,
        -0.017762895924131345,
        -0.007250082637970015
      ],
      [
        0.007674347291529088,
        -0.004694743859349522,
        0.005425600435859647,
        -0.0046341769281246226,
        -0.004657297535702569,
        0.002419622715660341,
        -0.01913280244657798
      ],
      [
        -0.01724917832513033,
        -0.005622875292409727,
        -0.010128311203344238,
        0.003142473325952739,
        -0.00908024075521211,
        -0.014123037013352916,
        0.014656487689215542
      ],
      [
        -0.0022577630048653567,
        0.0006752820468792384,
        -0.014247481862134568,
        -0.005443827245251827,
        0.001109225897098661,
        -0.011509935774223028,
        0.0037569801834567195
      ],
      [
        -0.00600638689918805,
        -0.002916937497932768,
        -0.006017066122293969,
        0.01852278184508938,
        -0.0001349722473793392,
        -0.010577109289559003,
        0.00822544912103189
      ],
      [
        -0.012208436499710222,
        0.0020886359500475542,
        -0.019596701238797757,
        -0.013281860488984306,
        0.0019686123586912354,
        0.007384665799954104,
        0.001713682811899705
      ],
      [
        -0.0011564828238824054,
        -0.0030110369558928878,
        -0.014785219903674275,
        -0.0071984420839470865,
        -0.004606387709597875,
        0.010571222262189157,
        0.003436182895684614
      ],
      [
        -0.021128401553626233,
        1.1537726396939634,
        -1.1454128228041733,
        0.26332857999694215,
        0.8168137628884073,
        -1.0653794057609733,
        -1.640175981130721
      ],
      [
        0.802746824767775,
        -0.408921923758517,
        0.9658196343140197,
        -1.8456491487287825,
        1.1050552576215606,
        -0.009307916714199088,
        1.4158016548219168
      ],
      [
        -0.011962066240806708,
        0.008125258223941981,
        0.01356240028570823,
        -0.0007201012158033385,
        0.010035328978920241,
        0.0036163602504763414,
        -0.006451197546051243
      ],
      [
        0.07247495605508746,
        -0.1371066343353378,
        0.519036739608903,
        0.899736436558112,
        -1.9957614510409794,
        0.161812139278751,
        0.7728795660850042
      ],
      [
        -0.002990073504658675,
        0.000917607765355023,
        -0.01987568914600893,
        -0.0021967188783751194,
        0.003571125715117464,
        0.014778940447415161,
        -0.005182702182736474
      ],
      [
        -0.41553093602893465,
        0.46736522956414805,
        -0.03620097882297897,
        1.7773495110965654,
        0.03684939796233008,
        -1.4063466261374824,
        -1.5408153182577002
      ],
      [
        -1.2249895500946777,
        -0.8445219309387736,
        0.152454378534028,
        -0.49779508153131885,
        -0.6354171494812981,
        1.8516022024902627,
        1.315708743509502
      ],
      [
        0.8307931345664036,
        -0.18255347133374783,
        -0.40229970742049964,
        -0.5640930532276617,
        0.6952608548347312,
        0.49978466810996103,
        -0.299268061002898
      ]
    ],
    "b": [
      -0.1,
      0.0,
      0.0,
      0.0,
      0.0,
      0.0,
      0.0,
      0.8999999999999999,
      -0.7999999999999999,
      0.0,
      -0.4,
      0.0,
      0.6,
      0.20000000000000004,
      -0.4
    ],
    "algorithms": [
      "SORT",
      "RANDOM",
      "HUBSORT",
      "HUBCLUSTER",
      "DBG",
      "HUBSORTDBG",
      "HUBCLUSTERDBG",
      "RABBITORDER",
      "GORDER",
      "CORDER",
      "RCM",
      "GraphBrewOrder",
      "LeidenOrder",
      "LeidenDendrogram",
      "LeidenCSR"
    ]
  },
  "bc": {
    "W": [
      [
        -0.060154858469887676,
        -0.04827144301171186,
        -0.05609311461899308,
        -0.0038543014359197457,
        -0.07337453374723336,
        -0.017762895924131345,
        -0.007250082637970015
      ],
      [
        0.007674347291529088,
        -0.004694743859349522,
        0.005425600435859647,
        -0.0046341769281246226,
        -0.004657297535702569,
        0.002419622715660341,
        -0.01913280244657798
      ],
      [
        -0.01724917832513033,
        -0.005622875292409727,
        -0.010128311203344238,
        0.003142473325952739,
        -0.00908024075521211,
        -0.014123037013352916,
        0.014656487689215542
      ],
      [
        -0.0022577630048653567,
        0.0006752820468792384,
        -0.014247481862134568,
        -0.005443827245251827,
        0.001109225897098661,
        -0.011509935774223028,
        0.0037569801834567195
      ],
      [
        -0.00600638689918805,
        -0.002916937497932768,
        -0.006017066122293969,
        0.01852278184508938,
        -0.0001349722473793392,
        -0.010577109289559003,
        0.00822544912103189
      ],
      [
        -1.742120436499706,
        0.4364914359500526,
        0.38811829876119486,
        0.8356631395110048,
        -0.8817353876413229,
        -0.19269525602217083,
        0.18777880095797816
      ],
      [
        -0.0011564828238824054,
        -0.0030110369558928878,
        -0.014785219903674275,
        -0.0071984420839470865,
        -0.004606387709597875,
        0.010571222262189157,
        0.003436182895684614
      ],
      [
        -0.014967401553621237,
        -1.019536160306055,
        -0.020879822804160487,
        0.2785271799969498,
        0.2233577628884126,
        0.29037129500246683,
        -0.2717607307886212
      ],
      [
        -0.3486611752322266,
        0.052778676241488194,
        0.37144563431403577,
        0.4957016512712238,
        1.116528257621547,
        -0.12852904977141355,
        0.06450221310105853
      ],
      [
        -0.731402066240805,
        -0.840754941776058,
        0.6367144002857165,
        -0.21785990121580326,
        -0.6782886710210598,
        0.4405544038084742,
        0.6470263804549172
      ],
      [
        1.104137956055087,
        0.37537096566465666,
        0.05275873960889673,
        0.398753436558138,
        -0.8702274510408895,
        0.42531977106172697,
        1.672870294584169
      ],
      [
        0.7363749264953444,
        0.22481280776535428,
        0.2738513108539883,
        0.2930988811216237,
        -0.006034874284882637,
        -0.8511631300493716,
        -0.941470514742772
      ],
      [
        -0.5429379360289344,
        0.12787682956415397,
        -0.3220439788229782,
        -1.370681888903375,
        0.9166643979623404,
        -0.8406854266456963,
        -1.2563282900156376
      ],
      [
        0.009686449905328893,
        -0.007020530938773524,
        -0.003276621465977682,
        -0.003921081531321576,
        -0.014635149481321186,
        0.0029612027706457608,
        0.002610552721798893
      ],
      [
        1.5470951345664579,
        0.7091463286662382,
        -1.3492007074204924,
        -0.6926028532276646,
        0.23274685483473248,
        0.9118112176094297,
        -0.09101831916461756
      ]
    ],
    "b": [
      -0.1,
      0.0,
      0.0,
      0.0,
      0.0,
      0.10000000000000003,
      0.0,
      0.6,
      -0.20000000000000004,
      0.5,
      -0.9999999999999999,
      -0.30000000000000004,
      0.9999999999999999,
      0.0,
      -0.6
    ],
    "algorithms": [
      "SORT",
      "RANDOM",
      "HUBSORT",
      "HUBCLUSTER",
      "DBG",
      "HUBSORTDBG",
      "HUBCLUSTERDBG",
      "RABBITORDER",
      "GORDER",
      "CORDER",
      "RCM",
      "GraphBrewOrder",
      "LeidenOrder",
      "LeidenDendrogram",
      "LeidenCSR"
    ]
  }
}